#count ngram, here -order 2, 2-gram ...
#checking the count file ...
<s>	10
<s> သတင်း	3
<s> မကောင်း	2
<s> သတင်းစာ	2
<s> ကောင်း	3
</s>	10
သတင်း	8
သတင်း </s>	2
သတင်း ကောင်း	1
သတင်း ပါးအပ်	1
သတင်း မဟုတ်	1
သတင်း ပို့	1
သတင်း ထဲက	1
သတင်း ပါ	1
ကောင်း	7
ကောင်း ပါးအပ်	1
ကောင်း ကောင်း	1
ကောင်း မကောင်း	1
ကောင်း ပါ	1
ကောင်း တဲ့	2
ကောင်း သတင်းစာ	1
ပါးအပ်	2
ပါးအပ် ပါသည်	2
ပါသည်	3
ပါသည် </s>	3
မကောင်း	3
မကောင်း တဲ့	2
မကောင်း ကောင်း	1
တဲ့	4
တဲ့ သတင်း	4
သတင်းစာ	3
သတင်းစာ ထဲက	1
သတင်းစာ ပို့	1
သတင်းစာ မဟုတ်	1
ထဲက	2
ထဲက သတင်း	1
ထဲက ကောင်း	1
မဟုတ်	2
မဟုတ် ပါ	2
ပါ	5
ပါ </s>	5
ပို့	2
ပို့ ပါသည်	1
ပို့ ပါ	1
==========

#language model building ...
#checking the language model file ...

\data\
ngram 1=13
ngram 2=31

\1-grams:
-0.7075702	</s>
-99	<s>	-99
-0.8624721	ကောင်း	-99
-1.10551	တဲ့	-99
-1.40654	ထဲက	-99
-1.0086	ပါ	-99
-1.230449	ပါသည်	-99
-1.40654	ပါးအပ်	-99
-1.40654	ပို့	-99
-1.230449	မကောင်း	-99
-1.40654	မဟုတ်	-99
-0.8044802	သတင်း	-99
-1.230449	သတင်းစာ	-99

\2-grams:
-0.5228788	<s> ကောင်း
-0.69897	<s> မကောင်း
-0.5228788	<s> သတင်း
-0.69897	<s> သတင်းစာ
-0.845098	ကောင်း ကောင်း
-0.544068	ကောင်း တဲ့
-0.845098	ကောင်း ပါ
-0.845098	ကောင်း ပါးအပ်
-0.845098	ကောင်း မကောင်း
-0.845098	ကောင်း သတင်းစာ
0	တဲ့ သတင်း
-0.30103	ထဲက ကောင်း
-0.30103	ထဲက သတင်း
0	ပါ </s>
0	ပါသည် </s>
0	ပါးအပ် ပါသည်
-0.30103	ပို့ ပါ
-0.30103	ပို့ ပါသည်
-0.4771213	မကောင်း ကောင်း
-0.1760913	မကောင်း တဲ့
0	မဟုတ် ပါ
-0.60206	သတင်း </s>
-0.90309	သတင်း ကောင်း
-0.90309	သတင်း ထဲက
-0.90309	သတင်း ပါ
-0.90309	သတင်း ပါးအပ်
-0.90309	သတင်း ပို့
-0.90309	သတင်း မဟုတ်
-0.4771213	သတင်းစာ ထဲက
-0.4771213	သတင်းစာ ပို့
-0.4771213	သတင်းစာ မဟုတ်

\end\
==========

 Converting ARPA format into Binary ...
#calculating the model perplexity ...
file ./my-test.txt: 3 sentences, 9 words, 1 OOVs
2 zeroprobs, logprob= -3.70757 ppl= 2.581976 ppl1= 4.148856
==========

#calculating the binary language model perplexity ...
file ./my-test.txt: 3 sentences, 9 words, 1 OOVs
2 zeroprobs, logprob= -3.70757 ppl= 2.581976 ppl1= 4.148856
==========

#calculating the language model perplexity with -debug option...
သတင်းစာ ပါသည်
	p( သတင်းစာ | <s> ) 	= [2gram] 0.2 [ -0.69897 ]
	p( ပါသည် | သတင်းစာ ...) 	= [1gram] 0 [ -inf ]
	p( </s> | ပါသည် ...) 	= [2gram] 1 [ 0 ]
1 sentences, 2 words, 0 OOVs
1 zeroprobs, logprob= -0.69897 ppl= 2.236068 ppl1= 5

ကောင်း သတင်း မပါ ပါ
	p( ကောင်း | <s> ) 	= [2gram] 0.2999999 [ -0.5228788 ]
	p( သတင်း | ကောင်း ...) 	= [1gram] 0 [ -inf ]
	p( <unk> | သတင်း ...) 	= [OOV] 0 [ -inf ]
	p( ပါ | <unk> ...) 	= [1gram] 0.09803926 [ -1.0086 ]
	p( </s> | ပါ ...) 	= [2gram] 1 [ 0 ]
1 sentences, 4 words, 1 OOVs
1 zeroprobs, logprob= -1.531479 ppl= 3.239612 ppl1= 5.830951

သတင်းစာ ပို့ ပါ
	p( သတင်းစာ | <s> ) 	= [2gram] 0.2 [ -0.69897 ]
	p( ပို့ | သတင်းစာ ...) 	= [2gram] 0.3333333 [ -0.4771213 ]
	p( ပါ | ပို့ ...) 	= [2gram] 0.5 [ -0.30103 ]
	p( </s> | ပါ ...) 	= [2gram] 1 [ 0 ]
1 sentences, 3 words, 0 OOVs
0 zeroprobs, logprob= -1.477121 ppl= 2.340347 ppl1= 3.107233

file ./my-test.txt: 3 sentences, 9 words, 1 OOVs
2 zeroprobs, logprob= -3.70757 ppl= 2.581976 ppl1= 4.148856
